#include "DeepNeuralNetwork.h"

// 7x7 default single weight matrix of conv2D filter
float conv2D_filter[CONV2D_SIZE][CONV2D_SIZE] = {
        {-0.43029568, -0.39133656, -0.18070924, 1.9146448, -0.72108614, -0.06065637, -0.5327825},
        {0.42427886, 0.48808837, -0.2642057, 0.3576343, 0.6267088, 0.21197554, 0.86757374},
        {0.0244696, -0.04827072, 0.16628812, -0.17212549, -0.13450626, 0.63747036, 1.4266869},
        {-0.1043217, -0.3071339, -0.15082423, 0.32923478, 0.26912355, 0.07193143, -0.12325906},
        {-0.02518349, -0.55556524, -0.38330624, -0.9799975, -0.77819675, -0.53853893, -0.6251154},
        {-0.75074315, -1.0719602, -1.2721115, -0.33550426, -1.4457195, -2.9715965, -0.2728055},
        {2.3081367, -0.12951809, -0.26579207, -1.0174242, -0.32230973, 1.5067326, -2.0501044}
};


// 121x36 default single weight vector of FullyConnected layer
const float dense_weights[DENSE_WEIGHTS_LEN] = {0.42389297, -0.3777679, -0.14339094, -0.51132095, -0.096901745, 0.38238993, -0.18748926, -0.05787523, -0.37740272, -0.41629294, 0.488402, 1.1407253, 0.18530186, 0.20089737, 0.89263374, 0.45293847, 0.44526452, 0.010291849, -0.71538967, 2.6833496, 0.30658486, 0.5436105, -0.59970874, -0.12296562, 0.19900385, 0.11223487, 0.40871108, 0.114251114, -0.3096374, -0.20738089, -0.06686727, -0.19470724, -0.6774756, -0.15291542, 0.0899597, -0.22740205, -0.22951202, 0.60986954, 0.04057434, -0.3066007, 0.11805771, -0.24862391, -0.70913166, 0.27321497, -0.11015183, -0.021791615, 2.8757343, 0.59044534, 0.44518927, 1.0691243, 0.8508363, 0.7874608, 0.80193627, 0.5716211, -0.59050417, -1.7909682, -0.25483596, 1.1381904, -0.08203808, 0.96682405, 1.1616689, 1.0529191, 0.2436091, 0.2542588, 0.3740252, 0.517982, 0.6528926, 0.38528642, 2.475672, 0.41712716, 0.06866825, -0.89877963, 0.05766443, 0.15344718, 0.31257457, 0.27826336, 0.39848238, -0.4305429, -0.52350044, 0.69019383, -0.016317429, -0.117210016, 2.1307664, 0.17660204, 0.39224806, -2.4110136, -0.033722606, 0.47478706, 0.33740273, 0.5499651, 0.24095415, -0.6782214, -0.71320057, 1.2701788, -0.14626218, 1.0203218, 0.06266565, 0.043855615, -0.16040483, 0.9620783, 0.6608588, -0.49670747, 0.24660859, 0.48417103, -0.98145175, 0.46714437, -0.061174504, -0.70336527, -0.094014846, -0.025612786, 0.15698612, 0.18573503, 0.38523254, -0.20984864, -0.157599, 0.59265226, -0.13553762, -0.15115193, -0.2590725, 0.092004165, 0.654726, -1.5012388, 0.057761177, 0.66090214, -0.4401016, -0.23698848, -0.48506936, 1.091287, 1.9044684, 0.6888644, -0.6719549, 0.04590096, -0.45969805, -0.74753857, -0.53330606, 0.56197846, 0.45607266, -0.9352503, 2.194364, 0.6796579, -0.14293773, 0.5946347, 2.8160102, -0.8703773, -0.0037569553, -0.12519003, 0.10164239, 0.06708348, 0.4169359, -0.03453148, 0.12676106, 0.35547408, -0.072755, 0.025682516, 0.5952433, 0.72976744, -0.041536942, -2.611844, -1.0706439, -1.434097, 1.2804911, 0.33062544, 0.4972964, -1.1935048, -0.5844118, 0.45473248, -0.8400934, -0.36910495, -1.5178102, -2.8285313, 0.31663215, 0.35124347, 0.7048184, -0.8470644, -0.3396202, 0.47630113, 1.275406, 2.3836675, 0.1699988, -1.3107492, 0.13029324, -0.11459066, -0.03743892, 0.009061946, 0.44175643, 0.11334918, 0.2537384, 0.33573765, 0.015218589, 0.08340328, -1.2001379, 1.0493072, 1.6820279, -0.15743437, -1.557911, -1.7414311, -1.685601, 0.2614582, 0.4484806, -0.60651267, -0.38393772, 0.29801595, -0.3498166, -0.18517497, -1.6250647, 1.2020968, 0.30855483, 0.68434894, -0.60668373, -1.0258394, 1.5870657, 0.45468715, -0.40529406, -0.18614824, 1.9069281, -0.7463413, 0.10169048, -0.016515123, -0.14809036, -0.021974182, 0.38245893, 0.13202217, 0.1089799, 0.22860067, 0.06288065, 0.31156933, -0.2630527, 0.20787434, -1.4027474, 0.501361, 0.19924887, -2.3358798, 0.48173675, -0.62690514, -1.2441205, -0.8232389, 1.4678631, -1.1262559, 0.05690427, 0.971059, -2.1614606, 0.6091414, -0.2070127, 0.593261, -0.23767048, -1.9171128, 0.6544346, -2.6813555, -0.5858414, 0.57390565, -0.111194514, -0.8224281, 0.16765165, 0.24888536, 0.010621272, 0.15801257, 0.13963982, 0.06285063, 0.10110444, 0.31619918, 0.23847148, 0.4719953, -0.098805316, 0.109896965, 0.28437927, 0.42254564, -0.44896218, -1.8472936, -2.579797, -0.5199091, -1.5056546, -0.53144354, -2.0045843, -0.9591429, -1.5721201, -1.1860585, -2.2555275, 0.6858286, -0.062898554, 0.277558, -0.06704853, -1.7779754, -0.7552676, -1.8527445, -0.74111176, 0.7426416, -2.1489856, -1.4497088, 0.21511655, 0.29493427, 0.19277693, 0.19166152, 0.052070126, 0.045550406, -0.118257366, 0.42802668, 0.24750032, 0.4359924, -2.2338843, -0.19839637, 0.50054526, 0.5414637, 0.46819708, -1.8780116, -2.483511, -1.3811833, -2.9746706, 0.09886132, -0.5891412, -1.3276248, -1.9627063, -2.2081769, -1.7113664, 0.57645375, -0.05607187, -1.4437557, 0.29212928, -1.9565529, -1.1142669, -2.1146207, -1.2988743, -2.604722, 0.5732981, -1.8462738, 0.2502249, 0.02065625, 0.26285538, 0.28697094, 0.21941763, 0.08491357, -0.19631414, 0.5496883, 0.29807723, 0.4690562, -2.5211508, 0.44373193, -2.08439, 0.6684532, -3.2619002, -2.906165, -2.5045145, -1.9562882, -3.0003183, -0.22861914, -2.978625, -2.4302516, -0.4334013, 0.71262974, -1.386678, -2.1464713, 0.07873577, -1.6701168, -3.169167, -2.732133, -2.3369753, -2.2762775, -2.3067713, 0.632718, -3.243806, -2.2171512, 0.40856364, 0.13975564, 0.36570984, 0.41774112, 0.38069272, 0.15554284, -0.43195772, 0.6596637, 0.44486395, 0.6561163, -2.5488458, 0.8503141, -2.7461896, -3.912092, -2.9320664, -0.07219526, -3.087168, -3.2305408, -3.2410069, -0.61080503, -2.5809364, -3.558956, -2.413043, -7.1395535, -3.0406265, -3.2122667, -2.7143598, -2.246922, -3.0943594, -2.6532943, -4.078776, -2.3170002, -0.16941176, -3.4395905, -2.4938374, -2.5914423, -0.5347727, -0.15484881, -0.14384705, -0.14319764, -0.42223513, -0.32197085, -0.22621892, 0.06640142, -0.27687535, -0.16321217, -2.3993156, 1.7354808, 0.45093855, 1.8852547, 1.8448536, 1.1437777, 0.8213022, 1.2161463, 2.0815344, -1.098352, 2.4597185, 1.7835237, 1.1611048, 2.0342765, 1.3404254, 0.41407135, 0.008882063, -0.2639584, 1.0315077, 1.301822, 1.600877, 0.32033488, -1.2535053, 0.25913036, 0.7906703, 1.7392217, -0.38242584, -0.36454895, 0.2022011, -0.14577766, -0.14141057, -0.50433296, -0.4330855, 0.115819156, -0.25745842, -0.24487501, -1.4470307, 0.76873744, -0.07450827, -3.1628437, -0.40631646, 1.2168791, 0.13730457, -1.5436051, 2.6327715, -0.16308774, 0.056463994, -0.59173155, 1.7775297, 1.4386164, 0.5009179, 1.79348, 0.7166077, 0.64359546, 0.17667012, 0.8255079, -0.37755275, 0.3032599, 1.1292356, -0.14416918, 0.38805157, 0.09402936, -0.4181205, -0.044758815, 0.2002143, 0.2060625, -0.15531185, -0.38485745, -0.33362642, 0.120972216, -0.26449266, -0.22760399, -2.081246, 0.21205935, -1.0798072, -0.08863829, -1.1600833, -2.3980978, -1.2255846, -1.2377771, -0.24234359, -0.8213919, 1.1118027, 0.014415595, 1.2270523, 0.969612, -1.8029566, -2.5801334, -1.052527, -0.9669329, -0.9494282, -0.6193145, -1.6521844, 2.5283327, 0.873752, 1.6697481, 1.9811404, 0.479945, -0.28041124, -0.087885946, 0.06373004, 0.070942596, -0.02389323, -0.3961188, -0.1873861, 0.054316282, -0.31258526, -0.12898418, -1.26638, -0.3042685, -0.12554644, 0.12239892, -1.647372, -1.690219, -0.29266295, 0.864653, 0.18062605, 1.1471069, 0.5674665, 1.3976731, 0.7355725, 1.0824572, -2.0786376, -2.2164156, -0.76821625, -0.73049533, -0.09660139, -1.1656381, 0.9296716, 0.7811517, 0.788602, 0.271739, 0.97152036, -1.1114271, -0.09446471, -0.17294721, -0.0031538098, -0.07226013, 0.04584039, -0.2606633, -0.041472204, -0.08161976, -0.18933576, -0.34952086, 0.18864578, 0.30259067, -0.15312387, 0.5035197, -1.053902, -0.16423434, 0.75435144, 1.436215, 1.7228459, -0.5173778, 0.87329006, 1.4290867, -0.079792954, -0.759557, -1.6211039, 0.61165833, 0.07024823, 0.63462573, -0.4523277, 0.20301324, -1.2009947, 0.10435102, 0.09087844, 0.6447474, -0.49906668, 0.8955731, -0.032014903, -0.14581755, 0.07575, -0.16263527, 0.14666295, -0.008640405, 0.068136595, -0.1307431, -0.062141947, -0.4443844, 0.37721208, 0.23750693, 0.5713232, 0.37071392, -0.36383343, 0.62689644, -1.290416, -0.7206118, -1.490483, 0.6975459, 0.6465952, 0.33244336, 0.6453418, 1.0062888, 0.27449656, 0.49901977, -0.2344083, 0.61453676, -0.7352109, -1.4411569, 0.6427453, 1.7045765, 0.81907225, 0.23802495, 1.2425176, -0.30887452, -0.07759598, -0.15623397, 0.01889215, -0.25829634, 0.08559114, 0.016869362, 0.16412514, -0.06982697, -0.03547665, -0.30469605, 0.58089226, 0.19230358, -0.5018553, 0.48751697, 0.14398557, 0.29641291, 0.3362131, 0.87484473, 0.23656642, -0.6313914, -0.37684345, 0.65472955, 0.71539235, -1.1580848, -0.7316568, 0.51332134, -0.53132194, 0.67392445, 0.11918988, -1.0789347, 0.43228957, -1.0096008, 0.7523026, 0.0022442697, 0.5997219, 0.16828375, -0.17876439, 0.067574434, -0.15589665, -0.28632188, -0.340393, -0.015856992, 0.1849889, -0.12760733, -0.150882, -0.09697137, 0.34205735, -0.00962641, 0.50589085, 0.4908124, 0.38270736, 0.5717444, 0.50347275, -0.2492529, 1.0912802, 0.10654226, -1.6232108, -1.8414494, -1.3166503, 0.7144374, 0.22994445, 0.9048704, 0.2124093, 0.4612855, -0.05018068, 0.3345483, -0.3689101, 0.5251076, -0.5017565, 0.23701707, -2.7430756, 0.18692434, -0.22197177, 0.0793638, -0.09269587, -0.073667794, -0.22925808, -0.09126595, 0.07636182, 0.20410699, -0.15298614, 0.16718173, 0.42802933, -0.18622091, -0.007218228, -0.60177124, -0.008170811, 0.54176956, -0.122483045, 0.24999985, 0.0031662742, -0.026935881, -0.40447176, -1.7683866, -0.018825602, -0.65580076, 0.27198887, 0.36191362, 0.16916682, -0.011786537, -0.20343232, 0.47943696, 0.22028294, 0.17800179, 0.21789655, -0.1882127, 0.10301607, 0.33697283, 0.024332289, -0.31704614, 0.027071789, -0.087452754, -0.018579952, -0.09775386, -0.10094883, 0.19743145, 0.021248497, 0.22525409, 0.36435118, -1.1116644, -1.3968927, 0.4581955, -0.3105869, 0.36368036, -1.6193311, 0.40515167, -0.6299937, 0.15131398, -0.08512229, -1.5292157, 0.56101096, 0.45485786, 0.1655211, 0.56357497, -0.06817389, 0.4679168, -0.5727302, 0.40721995, 0.467163, -2.2532208, -0.38412812, -1.334053, 0.9106896, -0.60297257, 0.10141925, -0.28207582, 0.0012553303, 0.1339211, 0.11228539, -0.11870277, 0.02096256, 0.4183096, 0.23398383, 0.39287496, -3.1103277, 0.7642442, -2.1448333, 0.24777804, 0.42164484, -0.5387851, -2.4644892, 0.5332087, 0.09741577, 0.4404614, -2.6314552, -2.8227267, -2.7323394, -0.41651928, -1.1267661, -2.6970181, -2.4080591, -2.846183, 0.26493788, -0.52087504, 1.4256909, -1.7057315, -0.26333144, -3.250091, -2.6637652, -2.621564, -0.16418861, -0.024236923, 0.12287234, 0.11612543, -0.003813512, -0.20502275, -0.111136235, 0.106673524, -0.16021827, -0.25456938, -3.7350674, -1.0083227, -0.5840595, -0.98951143, 1.4484785, 0.26609835, 0.62087464, 0.76194495, 1.6213428, 0.70355177, -2.6155648, 0.5159983, 1.3585132, 1.3178518, 0.24234226, 0.67261195, 1.1810836, -0.20569855, -0.4070463, 1.6204281, -0.48149306, -0.19919659, -0.58489734, -1.4743807, 0.44747034, 0.17053095, -0.34411806, 0.025919512, 0.2267264, 0.2647253, -0.09599302, -0.12856705, -0.4260704, 0.31435362, -0.09084672, -0.19701628, 0.86386335, 0.96687263, 0.37502298, 1.278489, 0.70471215, 2.2372112, -0.42455798, -1.8984617, -2.3063471, -0.0007391393, 0.33376747, 1.9821179, -1.5499399, 0.7930227, 0.87251836, 2.5283637, -0.034680504, 0.56493545, 1.5111175, 1.3964475, -1.0827675, 0.44674155, 1.4028287, -1.3572521, 0.72533107, -0.25407836, -0.24490033, -0.015234629, 0.22386676, 0.26300696, -0.15465243, -0.177477, -0.27944377, 0.22114392, -0.11065861, -0.27258098, 0.66683125, -1.0851455, 1.2688435, 0.62159127, -0.12725969, 0.39677194, 0.020130146, 1.239491, 0.894617, 0.24669623, -2.5024142, 0.86819416, -0.4038013, -0.29889423, 1.3790543, -1.271444, -0.59679484, -0.25240454, -0.137935, 1.0866824, 0.72669774, 1.6936575, 0.19157971, 0.725194, -1.7745888, -0.5999822, -0.077760145, 0.0086009065, 0.2530889, 0.3083326, 0.0586403, -0.18533581, -0.1244234, 0.17800918, -0.12515634, -0.086613245, -0.4720089, -0.42533854, -0.1024398, -0.16099255, -0.7576353, -1.0380125, 0.9713866, 0.8847594, -1.1891621, 0.64260006, 0.4630863, 0.7506364, -1.0368502, 0.566498, -0.41150424, -0.74947834, -0.5095106, 0.19235806, -0.3505874, -0.5816258, 1.4119871, 0.44827703, 0.6295706, 0.84768057, 1.030679, -0.1566494, 0.0011160346, -0.215071, 0.16181768, 0.124183044, 0.06027419, 0.043520793, -0.07592138, 0.0642257, 0.036251076, 0.012268221, -0.14295417, 0.5997855, 0.50116366, 0.62787265, -0.042546276, -0.227666, 0.30985457, 0.3926081, 0.7058448, -0.5163107, 0.6193989, 1.0336992, 0.99671614, 0.5859734, 0.81892467, -0.6777642, -0.16335209, -0.42348918, -0.20279442, -1.0589936, -0.39360058, -0.6074931, 0.6864214, -0.55245334, -0.5961512, 0.25635532, 0.07185122, -0.5662944, -0.00890272, -0.08359459, 0.013608921, 0.08559806, 0.035146795, -0.16248074, 0.043163113, 0.004411907, -0.3920251, -1.1130283, -0.25732064, 0.3015579, -0.1325559, -0.0006116632, -0.6251968, -0.1982422, -0.6435552, -0.0042582513, 0.70154524, 0.8787845, 0.15989642, -0.24604799, -0.79713225, -0.35013822, 0.54899037, -0.5419329, -0.11640479, -0.997466, 0.8595235, 1.0816925, 0.19637272, 0.77951145, 1.6067861, -0.174178, 0.09478196, -0.6083739, -0.04097412, -0.15925772, -0.08305017, 0.17978764, 0.15547337, -0.4568885, 0.014826818, -0.10030014, -0.7390347, 0.49738798, -0.76409096, 0.73377657, 0.13227662, 0.40071246, 0.054635152, -0.2660797, 0.5993052, 0.32385376, 0.26198244, 0.8099958, 0.24960609, 0.68018305, 0.43153486, -1.421477, -0.17109509, -0.6063905, 0.52163655, 0.047638495, 0.6510558, -0.29745466, -0.1740347, 0.28677452, -0.410825, -1.2568434, -0.083099954, 0.15320466, -0.26213238, -0.37985668, -0.57563806, 0.01970835, 0.11352411, -0.6897272, -0.13748905, -0.32738376, 0.18641882, 0.17755035, 0.41029945, 0.6728763, 0.19598207, 0.031221554, 0.1711945, -0.15966439, 0.49744898, 0.5877928, -0.047903247, 0.2511118, -0.4277668, -1.4598658, 0.3745965, 0.6821919, -0.036664367, 0.3666905, 0.3082525, 0.5102878, -0.17787983, 0.19916824, -1.165749, -0.4437083, -0.10238003, -0.09984654, -0.3533573, 0.03344218, -0.23841263, -0.30931193, -0.08623704, 0.05662411, -0.029800495, -0.12556472, -0.1643175, 0.04011243, -0.29593852, 0.24168517, 0.36764604, -0.72492737, -0.031340647, 0.21130082, -0.06013622, -0.3556327, -2.0680916, -0.23022403, -0.15122262, -2.190929, -0.09415215, 0.040748347, -0.015251063, 0.21684243, 0.30000722, 0.20669615, -0.072293736, 0.314242, 0.31531677, -0.10376504, 0.118695185, -0.124101475, 0.28418425, 0.15725824, 0.03857139, -0.053726126, -0.0359027, -0.027651925, 0.1264576, 0.16176748, 0.074064896, 0.1467643, 0.056200456, 0.27030754, -0.24809827, -0.89328575, -2.244571, -0.06672625, 0.18501703, -0.46052194, -1.6971874, 0.39291462, -2.2102015, 0.36842206, 0.015731221, -2.6158452, 0.3119088, -0.39305353, 0.25275692, 0.019650038, 0.27298206, -0.18088353, -1.5341667, 0.6038654, -1.3374331, -3.5699964, -0.5849503, 0.41894892, -0.42796916, -0.1263239, 0.2539192, 0.0280495, 0.110119306, 0.09055777, 0.4530317, 0.3082257, 0.40795517, 0.3543446, 0.22182281, 0.6554618, -2.8412263, -0.7416066, -1.1665326, 0.09780545, 0.21456972, -1.3824445, -1.6567042, -1.6836996, -2.9968503, 0.07370117, -2.81024, -2.120447, 1.1396374, 0.4673463, 1.3760748, -3.9351203, -3.0402882, -2.685088, -0.7736589, 0.821931, -2.6465528, -2.000654, 0.12457902, -3.7131193, -2.6742651, -2.652575, -0.23296429, 0.0739626, 0.28746584, 0.53707534, 0.025064686, 0.00845335, -0.20657046, 0.50139004, 0.2057274, -0.29461524, 0.55322057, -0.89109224, -1.842696, -0.08594456, -0.97781605, -0.5254171, -1.6974462, -1.7942903, -0.8452532, 0.37790424, -0.97843724, -1.1262984, -0.7836912, -1.5684179, -1.2368113, -2.7334888, -4.283581, -1.6730095, 0.2504032, -0.007014781, -1.831479, -0.47416794, 0.9385898, -2.7185373, -0.46783444, -2.2084985, -0.42674962, -0.091477215, 0.15971735, 0.3277413, -0.19333878, -0.10297701, -0.404434, 0.22974886, 0.03302937, -0.3702436, -0.21551332, 0.42409107, -3.805285, 0.7839888, -0.5900785, -0.16752821, -1.9636188, -2.1426773, 0.8869036, 0.37907848, -1.7816919, -1.0046895, 0.07724929, -1.2975177, 0.6497555, -1.9694558, -1.1443244, -1.4290241, -1.540919, -1.8075976, -2.0227666, -2.9509454, -0.14812522, 0.3733941, -0.868407, 0.53651124, -0.22728162, -0.0736567, 0.26012036, 0.37544668, -0.32772258, -0.03404732, -0.3291226, 0.2992918, 0.065873824, -0.25327864, 0.055626206, 0.497318, -0.33547568, -0.38522282, -0.32523218, -0.023693422, -0.623375, -1.8848428, 0.68531346, 0.3692412, -1.5875267, -2.812134, -1.1499985, -0.060009185, -0.8216393, 0.0032226145, -0.79169095, -1.9244493, -2.440236, 0.8325149, 0.34275976, 0.74491656, -1.0983398, 0.06340756, 1.1617218, 0.36348736, 0.0035162226, 0.18857296, 0.3511883, 0.4189828, -0.14502946, -0.004524885, -0.13713229, 0.3793865, 0.078920804, 0.17952302, -0.06882301, -0.6021147, -0.5513635, -1.2453609, 0.22789572, -1.5915585, 1.0400399, 0.3918192, 0.52317566, 0.84556884, -1.1583227, -1.4560108, 0.41351372, -0.5984813, -0.6492606, 0.06250011, 0.1535225, -0.7968467, -0.13457038, -1.1733298, -1.06601, -0.5346295, -0.49529657, -1.4204855, -0.8310168, 0.83380485, 0.15299791, -0.0008286729, 0.31074154, 0.22514673, -0.012427726, 0.016797753, -0.053700984, 0.3103931, 0.09169999, 0.2553881, -0.36082572, -0.072449185, 0.57882965, 0.19698994, -0.384632, -0.8738511, -0.009250626, -0.8953577, -0.67101914, 0.2798192, -0.686039, -1.2633448, -1.0258214, -0.49347323, -0.4827518, -0.10324225, 0.3518967, -0.46884772, -0.43742028, 0.37910655, 0.02039619, -1.0160514, 0.5320678, -0.2838865, -0.4589222, 0.28331017, 0.21166568, -0.7642711, 0.09082724, -0.17067166, -0.22594695, 0.04140612, -0.024298856, 0.06110227, -0.062032167, -0.041524094, -1.058952, -0.63474274, -0.35491168, -0.19334646, 0.59775496, 0.7880266, 0.5263074, 0.4636145, -0.9236033, -0.12522966, -0.15242605, 1.2019175, -1.1206028, -0.15141857, 0.20381425, -0.15195528, 0.2033629, 0.59583735, 0.20900834, -0.5217183, -0.3562149, 0.0053544263, -0.42727348, -0.6658865, -1.5385804, -0.542449, 0.07346428, -0.77037144, -0.11887028, -0.3084535, -0.38440666, 0.117857866, 0.109272726, -0.19071944, -0.10327241, -0.14395387, -1.533065, -0.9483324, 0.22710074, 0.053340647, 0.8155643, 0.1348873, 0.003317422, -0.017954512, 0.9395815, 0.10538505, -0.11075037, 1.1035779, -0.6290946, 0.95951277, -0.21184874, 0.19793642, -0.40474856, -0.4990655, 0.9972674, 0.6490512, -1.3054808, -0.16443086, 0.35117847, 0.84368193, 0.6908237, -0.75023824, 0.15504381, 0.50485814, -0.120949455, -0.020468485, -0.3247605, 0.2906632, 0.22240908, -0.3713308, 0.048224863, -0.069621846, 0.33432922, 0.17629418, -0.23743422, -0.25410736, 1.0662127, 0.6250393, 0.52385557, -0.01730207, 0.8877609, 0.5904265, -0.48219585, -1.1962156, -1.4833825, -1.3182977, -2.7588725, -1.9029574, -1.515032, 0.09672879, -1.488552, 0.78112847, -0.57776594, -0.1821606, 0.06532939, 0.17018938, -0.8581357, 0.2283884, -0.1563546, 0.06481479, -0.1912264, -0.09690654, 0.056299325, 0.19284356, 0.065284275, -0.033359993, -0.03657839, -0.074348755, 0.33933935, -0.00086585176, -0.9022084, 0.5562142, -0.09558314, 0.61983293, 0.17243518, -0.07629247, -0.75113297, 0.6568843, -1.3946998, -2.550242, -0.23800479, 0.01486136, 0.20243837, 0.39276835, 0.006255052, 0.02075063, -1.7207559, -0.5772956, -0.15904494, -0.09067064, -0.25306773, 0.08523312, -0.29638538, 0.16948447, 0.029733991, -0.098123655, 0.12484419, 0.27945203, 0.34077397, 0.4905086, 0.21020196, 0.30891952, 0.24701512, 0.22828127, -1.6062944, -1.9650391, -2.3852103, 0.37353745, -2.804349, -0.5839243, -0.35240176, -1.3615186, -1.9421787, -0.7250371, -0.7407053, -2.7240856, 0.13430396, -0.41255066, 0.11222886, 0.47644594, 0.4146867, -3.4813323, -0.7330149, -1.5082165, 0.095148675, -3.3820481, 0.06775875, -0.35149872, -5.4575033, 0.3530071, 0.17277537, -0.327204, 0.040396977, 0.1450196, 0.4576387, 0.4985564, 0.35417727, 0.35727116, 0.30604064, 0.38866055, -2.696066, -3.4857993, -1.8103235, 0.19685648, -0.7609514, -0.715978, -4.171789, -3.1937227, -0.5034869, -0.9616543, -2.634532, -2.2618563, -3.0030193, 0.9790193, 1.5216789, -3.5909224, -2.8777707, -3.2753465, -4.5770884, -4.4280925, -3.9522064, -1.5817932, 0.78830564, -3.5095694, -2.5267825, -2.8162186, -0.2723942, 0.12708105, 0.39374977, 0.46789643, 0.012915217, 0.0703643, -0.20345545, 0.4059403, 0.26175603, -0.022037126, -1.5430869, 1.166632, -1.4171298, 0.38736427, 0.0862884, -1.5217152, -0.90385634, -0.9733446, -0.23580945, -1.3460217, -2.1760492, 0.17306969, -0.26688123, 1.2928315, -1.5493935, -3.099019, -3.5799146, -0.6219749, -1.6095638, -0.6476999, -1.2375171, -1.2140743, 1.215894, -1.7819107, -1.3280965, -2.2943032, -0.45963573, -0.16504878, 0.21528827, 0.13576604, -0.28769025, -0.12406723, -0.35117155, 0.06492713, 0.019770954, -0.13482276, -1.9726204, 0.19212805, -2.8134418, 0.5084245, -1.7346541, -1.4650104, -3.6416996, 0.505689, 0.22167157, -1.509354, -1.9493567, -2.3516595, -1.2999822, -1.1903443, -0.99893713, 0.4240364, -1.0262262, -2.4193094, -0.10822003, 0.55151135, 0.8315096, 0.8040668, 0.07654943, 0.64802974, -2.6238463, 0.036915686, -0.42212984, -0.16017511, 0.13350552, 0.13390353, -0.31315857, -0.009482543, -0.46037152, 0.2209051, 0.16337016, 0.03285215, -2.192034, -0.16299751, -1.3676931, -0.1926085, -1.1160611, 0.3949019, -3.2733622, 0.38125184, 0.5386715, 0.34743184, 0.47649783, -0.21080178, -0.27031258, -1.0894667, -0.50526214, 0.17219213, -1.5656698, 0.08759656, 0.5626292, 0.77242976, -2.406713, 0.97204685, -1.0304409, 0.6052768, 0.59017366, 0.106338575, -0.04056909, 0.22272398, 0.05377366, 0.23188658, -0.22123744, 0.17125732, -0.21578749, 0.38204017, 0.11784935, 0.13845925, -1.2866244, -0.66590935, -0.5559898, -0.5712363, -1.8760184, 0.0141896885, -0.012923039, -2.0612493, 0.45080352, 0.64085877, -1.9484489, -0.8880805, -1.0312741, -0.8440491, 0.016906876, -0.91794306, -0.39186656, -1.5171589, 0.31145933, 0.754057, -0.75751567, -1.3726237, -1.1955657, 0.45447937, -0.8595914, 0.43430236, -0.00445783, -0.20779507, -0.034510583, -0.05608523, -0.057162948, -0.03549861, -0.27155054, 0.3291858, -0.35202822, 0.060345855, -0.21793458, -0.6874356, 0.35528073, 0.3902479, -0.21982381, -0.3465158, -0.0063852984, -0.6111561, -0.51793927, 0.74452686, -0.5941132, -0.14807, -0.940328, -0.4819945, 0.59557486, -0.33717608, 0.33363694, -0.41162324, -0.735003, 0.23220128, 0.2843543, -0.8835552, -0.7587512, -1.0830497, -1.6986165, 0.16766532, 0.28040084, -0.84135795, -0.04269175, -0.153305, -0.15716998, 0.008389887, -0.15345967, 0.19930798, -0.32344833, -0.20066495, -1.2268237, -1.0640814, 0.9284278, 0.56512403, -0.28334746, 0.61200416, -0.2990023, -0.86115974, -0.5447404, -0.18796657, -0.36620688, 0.15996213, -0.3713405, -1.543386, 0.43992442, 0.03699178, -0.2806942, -1.0388579, 0.32493106, 0.53788567, -0.33030424, 0.3163292, -0.62474954, -1.0469544, 0.14245787, 0.11462531, 0.062234227, -0.4368435, -0.18677859, -0.2693435, -0.55183625, 0.0034638473, -0.19155614, -0.35325867, -0.29633296, -0.68950254, -1.3936336, -0.6612564, 0.7813698, 0.2886508, 0.34256223, 0.8398641, 0.40284356, -0.5378798, 0.09154105, 0.43092984, 0.5842964, 0.32582662, -1.492889, -0.45468733, 0.22406499, -0.06684843, 0.19606887, -0.00066587434, 0.39084062, 0.5060296, -1.51543, 0.35275733, -0.034000553, -0.018163525, -0.026134254, 0.047183096, 0.038122695, 0.40731114, -0.088819765, 0.016357517, -0.36586046, 0.18878111, -0.037373364, -0.1789638, 0.022843398, -0.50256306, -0.62005585, 0.02591691, -0.4278747, -2.9096608, 0.1454732, 0.56718457, -0.031010536, -0.1552283, 0.44130147, 0.27229968, 0.6337675, -2.189272, -0.9586036, -1.2864898, -0.6297858, -0.76052845, -0.038138192, -0.19354096, 0.5167694, 0.52808607, -0.198788, -0.33028573, -0.75791603, 0.41029462, 0.27733484, 0.4398389, -0.14436813, 0.071619645, -0.08385585, 0.124038704, 0.021218626, 0.23306708, -0.004767883, 0.04803627, 0.20189738, -0.0030718092, -0.04120398, 0.3144864, -1.6415985, -0.23629469, -0.40589827, 0.49294552, 0.28725466, 0.14808615, -0.42755845, -0.14009732, -0.8551727, -0.99238855, -0.5199248, 0.019090464, 0.04665415, -0.9231652, -0.045393266, -2.6254516, 0.07827873, 0.369729, -0.3522671, -0.07316847, -1.0132598, -0.43883833, 0.7473796, -0.92532414, -0.10727006, -0.4118028, -0.040833775, 0.28804472, 0.21175572, 0.4131459, 0.026088994, 0.31163743, 0.29491407, 0.12864259, 0.1221557, 0.15996206, -4.1537466, -0.13857071, -0.54085165, 0.61537534, 0.36022997, 0.49258, -3.4684632, 0.03152777, -0.86395174, 0.31989533, 0.3028588, -0.23266146, 0.25907406, -3.0995393, 0.026039002, -0.7259493, -0.53355104, 0.77987045, -0.2765475, -5.5780854, -0.12991259, -0.6380032, 0.80183697, -1.5880637, 0.21857005, -0.59864545, 0.14280309, 0.45950016, 0.4187897, 0.6077651, 0.32262877, 0.5448248, 0.5958092, 0.28541672, -3.276768, -3.684023, -2.063277, -0.07520372, -3.3149874, -3.6949894, -3.617083, -0.81991285, -3.3145409, -2.4814932, -2.2124047, -2.4852245, -0.8308782, 0.40629062, -3.9983482, -4.546048, -3.2600715, -2.0115416, 0.0040830574, 0.79802346, -0.32274374, -1.7790045, -0.026490081, -5.0598173, -2.4469922, -1.8846041, -0.019988667, -0.063668564, 0.17035644, 0.2334143, 0.12024248, 0.18012603, -0.10181015, 0.37602496, 0.3844712, 0.14315839, 0.17354627, 1.6489542, -1.6249179, -0.7438201, 1.2955009, -0.48766473, -1.1741332, -0.18611443, 0.29975203, 0.9281328, -0.20961253, 0.8118111, -1.1935308, 1.7407222, -2.3049905, -1.1365246, -1.385374, -1.1626537, -2.0731344, -1.7564442, -0.51658374, -1.0373564, 0.18782271, -0.113724954, -1.7769732, -0.52293396, -0.347902, -0.046333, 0.20429932, 0.18761192, 0.13121563, 0.24212328, -0.045092408, 0.38299668, 0.33074436, 0.18422778, -1.5090144, -1.9311115, 0.097751684, -1.206317, -0.7585087, -0.64758956, 0.5613222, -1.2501594, -3.026488, 0.9461003, 0.5336192, -1.0989529, -1.1270425, -0.97642624, -1.640111, -0.700373, -1.9872593, -0.5938535, 0.060747962, 0.16178316, 0.07233356, 1.1043702, 0.28397486, -5.2372065, 0.5733192, -1.7111542, -0.28463367, -0.17534709, -0.11515343, 0.15598913, 0.17369992, 0.19320223, -0.34306398, 0.31840584, 0.11374898, 0.22822295, -0.5401177, -0.06368358, -0.5179259, -0.7443297, -3.0971465, -2.8046093, 0.3294391, -0.36707234, -0.29101598, -0.5531997, -0.80430055, 0.24778971, -1.0824991, -0.9043054, -1.0832968, -0.9784758, 0.4714758, -0.2471896, 0.5147546, 0.4844576, -0.30918208, 0.65957046, 0.27318594, -0.041222773, 0.5034813, -2.318659, 0.06225002, 0.054378785, -0.27856395, 0.21024688, 0.1380507, 0.26501006, -0.22294931, 0.2194209, -0.029089518, 0.24762987, -1.1468017, -0.05920693, -0.35700473, -0.92358273, -1.1522744, -0.9776919, 0.51465327, -0.618337, 1.3145053, 0.9038828, -0.27719262, -1.2646478, 0.25025076, -0.13435167, -1.0914886, 1.1284716, -0.5203282, -1.3651792, 0.5153334, 0.37196395, -1.7557522, 0.42515716, -0.18596876, 0.16662197, 0.6954269, -1.6035854, -0.0788127, -0.47227284, -0.3981472, 0.06501718, -0.08548201, 0.042121664, -0.3762427, 0.045271408, -0.32931918, 0.14806528, 0.5273751, 0.61587524, -0.045220304, 0.04579928, -0.16883337, 0.677111, -0.6132467, -0.019268012, -1.6477821, -0.08656407, 0.07140912, 0.123777986, 0.83412206, 0.041569564, 0.42355296, -0.015013772, 0.17308809, -0.3699624, -0.066127874, -0.14088397, 0.59957564, -1.5290415, -0.43519092, 0.12033231, 0.50412196, -0.2712354, 0.00082904194, -0.762799, -0.5319886, -0.07921226, -0.56534576, -0.07355746, -0.33013502, -0.12288102, -0.3045577, -0.3864002, -0.13276322, 0.1583066, 1.0596402, 0.6515282, 0.7954983, 0.8770961, 0.51546645, -1.0870147, 1.3382154, 0.8110838, 0.33942068, -0.108333826, 0.011123533, -0.6381234, 0.87229615, 0.33782226, -0.69918174, 0.43783456, -0.40044677, 0.59640956, -0.0036409248, -1.7163775, -0.43305066, -0.7414116, -0.17110054, 0.5861243, -0.1391291, 0.07893573, -0.2736498, -0.097177856, -0.56618875, -0.014195956, -0.16299824, -0.39953858, -0.14001615, -0.52737945, -1.0354131, 0.10036309, 0.8656689, 0.58425325, 0.029057033, 0.046784785, -1.5298991, -0.38356262, 0.25493494, 0.47460917, 0.56664354, 0.5767705, 0.22051986, -0.84082365, -0.22426058, 0.67667824, -0.029334709, 0.40211043, 0.03552075, 0.5858473, 0.51088244, 0.41982758, -0.36129597, -1.050828, 0.8150495, 0.7187498, -0.19964626, 0.2297993, -0.16852842, -0.092061386, -0.20667359, 0.008517344, -0.13409829, -0.2411242, 0.15553789, -0.1332742, -0.3927473, -0.2644059, 0.35103148, -0.09482315, 0.24187998, -0.41874382, -0.1680827, -0.12130689, 0.120171405, -0.42904112, 0.11959311, 0.5425933, -1.2217284, 0.16968232, -0.16470909, 0.4397444, 0.11516073, 0.24181396, -0.8025456, -0.24806808, 0.11521153, 0.15790093, -0.12345938, 0.21527523, 0.069427066, -0.31616315, -0.19857474, -0.17883372, -0.073614866, 0.025024828, -0.016856056, 0.0137987295, -0.018151557, 0.03095626, 0.30635712, 0.067067616, -0.40633112, -0.11316371, 0.16651604, -0.20048125, 0.12171626, -1.060924, -0.48430604, 0.15865469, -4.257552, 0.09320191, 0.117272764, -0.013765383, -0.33578324, -1.0977921, -0.058155388, -0.84774065, -0.21030828, -0.28293365, -0.18959752, -0.7801199, -0.22348265, -0.6394447, -1.0700939, 0.1609845, -2.7953277, 0.037363056, -0.040300388, -0.55679244, 0.08464162, 0.20630401, 0.11849335, 0.15176915, 0.0036646866, 0.19524331, 0.3568705, 0.15925567, -0.27930966, -0.28242692, 0.36600193, -0.37264252, -0.3459587, -3.0438733, -3.6738598, 0.4105174, 1.5121801, 0.021153068, 0.28375506, -3.3161373, 0.4930204, 0.35934934, -1.2825317, -1.0326735, -0.22369657, -2.1498926, 0.2249317, -1.5186454, -1.8483337, -6.1777, 0.03564409, -3.721597, -3.1835616, 0.94546026, 0.24605373, -0.28414264, 0.25440496, 0.49030986, 0.43534908, 0.48400578, 0.28164726, 0.3217162, 0.6885673, 0.33127242, -2.3252132, -3.0036423, -3.030541, -0.6308834, -2.599743, -1.6426395, -2.0963817, -3.2273018, -3.1537125, -3.6882315, -2.2803636, -2.4755893, -3.194111, 0.4030696, 1.8869727, -2.2571092, -2.2515407, -1.6234226, -3.9665387, -3.386484, -3.5987906, -0.8470658, 0.5889664, -1.7625852, -1.8937842, -2.4757588, 0.115158185, 0.088660724, -0.10446192, 0.12061389, 0.5019797, 0.3953692, 0.18007247, 0.62409854, 0.35887942, 0.4207171, -2.7324045, -0.9606275, -1.5115434, 1.5827236, 0.14348592, -3.1635356, 0.48628396, -1.4184667, 0.19003588, -0.8291998, -0.46331766, -0.8071144, -2.643602, -2.1176722, -2.5732837, -2.1205704, -2.3298295, -1.7471563, -3.6263382, -2.2859657, -2.1094737, -0.8349042, 0.6062606, -0.484927, -0.7625759, -0.69016093, -0.08283515, -0.03081332, -0.22562993, 0.16111729, 0.18376529, 0.2597764, -0.04359161, 0.2786083, 0.112024754, 0.2145837, -3.3485467, -0.95181316, -0.8778106, -0.55371666, -0.41530675, -1.8493407, 0.047089007, 0.21542756, -3.203643, -1.7457044, -0.24192286, -1.0645877, 0.43124577, -1.6204472, 0.5904457, -0.51700807, -0.281474, -1.097618, -0.9853459, 0.7897863, -1.0984093, 0.8921174, -0.6834389, -1.9282467, -0.429978, -2.8484669, -0.34236723, -0.2914979, -0.19583222, 0.24363711, 0.18502876, 0.21180406, -0.22867018, 0.14964214, -0.036552712, 0.24695657, -0.810368, -1.4687344, 0.2310298, -0.5565188, -0.3157331, -1.1157186, -0.16947614, -0.33770877, -1.9688076, -0.40949485, -0.24259187, -1.1005003, -0.0241472, -0.15628177, 0.037308317, -2.5918305, 0.10006035, -0.4639338, -1.3323754, -0.8869097, -0.20460217, -0.0021446222, 0.06376394, -0.41404653, 0.12683563, -0.12721017, -0.033864032, -0.0061823856, -0.1289354, 0.1868151, 0.19585894, 0.18527962, -0.25982833, 0.03820107, -0.096183635, 0.27742666, -0.29017118, -0.2591514, -0.19961984, -0.84842986, -0.8585811, 0.44902465, -0.011871611, -0.13916005, -0.2696089, -1.3180684, -0.123630695, -0.27438462, -0.06264128, -0.46480846, -0.68163276, -0.06280412, 0.13577858, 0.17695236, -0.0054684314, 0.11011364, -0.2013308, 0.26187837, 0.19530448, -0.1552188, 0.07393849, 0.52670765, -0.17902064, -0.5012016, -0.34740233, -0.020913957, -0.12049054, -0.0763443, -0.2519463, -0.49565783, -0.3147277, -0.076299585, 0.01011182, -0.12908535, 0.21616222, -0.70942736, -0.74791867, 0.36236858, -0.18628591, 0.41401178, 0.0532246, -0.6770075, 0.34444627, -1.3975086, 0.24294761, 0.25545204, -0.029516514, 0.51345783, 0.2577155, 0.19467637, 0.18558486, -0.4052821, 0.12465479, -0.22716135, -0.5037044, 0.1365353, 0.3841948, -0.63502777, -0.099297754, -0.22363298, -0.2597903, 0.0044059814, -0.3106267, -0.022472486, -0.0010638838, -0.5493832, -0.063903905, -0.19660923, 0.6520963, 0.3471422, 0.19870031, -0.14237666, 0.0056020324, 0.36772552, 0.19456442, -0.35252142, 0.5323402, 0.06714068, -0.35949653, 0.47194797, 0.54723865, 0.42556223, 0.33964205, 0.71418947, -0.0429015, -0.7732294, 0.2894659, 1.1309339, 0.027833674, -1.3483139, 0.043837674, 0.7521317, 0.5644489, -0.5167679, -0.25208881, 0.1532252, -0.10861051, -0.111138254, -0.14457998, -0.12658769, -0.124821834, -0.06070421, -0.10159187, -0.12798809, 0.46505645, 0.3456013, 0.6135367, 0.47293726, -0.11458951, 0.8223613, 0.029495591, 0.07206148, -0.23576117, -0.028136488, -0.10071005, -0.87793636, 0.25779456, -0.0008591013, 0.07724557, 0.6337697, 0.011840017, 0.016607122, 0.10851801, 0.13231236, 0.54173577, -0.22745287, 0.071878664, -0.28509536, 0.24660335, 0.1500873, -0.1860783, 0.22111107, 0.0013091427, -0.08553063, 0.16367117, -0.15019447, -0.07540896, 0.06976116, 0.11598004, 0.06309238, -0.11881784, -1.6325305, -0.37925503, -0.19065002, -0.26695177, -0.009377881, -0.06034733, 0.34745562, 0.30599585, -0.14040278, -0.7434432, 0.29685557, -0.14403294, 0.36700007, 0.39941204, 0.35922688, -0.23182225, 0.2743816, -0.21763502, -1.789154, -0.051651757, -0.5592785, 0.14169562, -1.9099048, -0.29144856, 0.18137343, -0.07216409, -0.17242186, 0.0895917, -0.023029115, 0.086778775, -0.11609404, -0.024393354, 0.06992701, 0.2373666, 0.08144501, -0.37693432, -1.7027677, 0.33350012, -0.26399815, -0.1781488, -0.25978398, 0.5667971, 0.07168557, -0.83498496, -0.6664417, 0.65395963, 0.4563382, -0.086652555, 0.33247682, -0.97852904, 0.3776801, 0.40674967, 0.41911066, -0.5396458, -1.9504368, -0.07221427, -1.542769, -0.33750317, 0.4527148, -1.2438989, 0.646583, 0.01158484, -0.20984457, 0.121053845, -0.009151983, 0.22424118, -0.058971807, 0.10974373, 0.22348762, 0.3000488, 0.103148125, 0.7630721, 0.21282703, -0.38060945, 0.66201746, -3.3655386, -1.3463709, 0.83110976, -3.4573548, 0.6595361, -3.056135, 0.8428602, -4.5927525, 0.54398084, -2.9133193, -7.2643614, -4.5380692, -1.4304839, 0.7677178, 0.11526876, -2.7905796, -0.95944744, -2.190592, 0.33175582, 0.28565514, -2.5607474, 0.45566303, 0.371337, 0.38779053, 0.5390399, 0.30502704, 0.4651601, 0.1728662, 0.46400318, 0.41212887, 0.5069014, 0.21142824, -2.5929208, -2.5073159, -1.9802718, -4.694237, -2.2020879, -1.77979, -2.1739643, -2.481557, -2.658636, -1.934341, 0.3590685, -1.797016, -2.5919766, -1.918132, -1.6193262, -1.900538, -2.175285, 0.983171, -2.7772198, -3.2016485, -3.0417497, -1.2356256, 0.66679084, -1.9637092, -1.8153716, -2.2584498, 0.23113856, 0.2402955, 0.2755219, 0.19155614, 0.52435404, 0.3638256, 0.34001213, 0.63180214, 0.20270394, 0.4201539, -3.6808243, -2.1068537, -2.2637293, -2.979933, -1.0922918, -0.89744985, 0.16508953, -2.4489229, -0.18772373, 0.11394462, -1.5498935, -1.6550474, -0.40305153, -0.8053046, -3.1791494, -3.3398764, 0.14875467, -2.5757008, 0.48901004, 0.023723124, -0.35888928, -0.8524152, 0.06563698, -2.3102217, -3.5819511, 0.00091586745, 0.019733084, -0.04288303, -0.07251446, 0.034278646, 0.22428714, 0.106918804, -0.0032636733, 0.18883795, -0.07574736, 0.22162184, 0.107511275, -0.10689257, -1.3344296, -0.40837708, -0.076449886, -0.79110396, -0.08080197, 0.07642942, -1.1155521, -0.544763, -0.7468772, 0.09449798, 0.33797637, 0.2913471, -0.0150109, -0.8471005, -0.042955466, -0.27330163, 0.07394917, -1.2824576, -0.69336396, -5.199645, 0.34566253, 0.10239569, -0.46346357, -0.44285047, -0.20274684, -0.5847046, -0.19455482, 0.1196119, 0.12988158, -0.023665702, -0.12229185, -0.08954711, -0.17749229, 0.18529652, -0.10871525, -0.2833429, -0.105639406, -0.189796, -0.12284438, -0.12102327, -0.072213344, -0.27235392, -0.91863793, -0.106335655, -0.14978199, -0.40587613, -0.49689865, -0.0034022536, -0.18213461, -0.26517996, -0.31619492, -0.20594604, 0.15230586, -0.21964462, 0.009013036, -0.41774026, -0.030409956, -0.24325927, -0.25675806, -0.24904019, -0.27256218, -0.17384419, -0.14339134, 0.07408629, 0.10530635, 0.03410574, -0.22104636, -0.1308581, -0.15746196, 0.13330567, -0.16592756, -0.08074899, -0.040052075, -0.0120293405, 0.012248048, 0.027157983, 0.09601104, -0.14941624, -0.076093234, 0.08723692, -0.16256818, 0.12460664, -0.22142251, -0.09768631, 0.09063736, -0.13189055, 0.117553525, -0.10039994, 0.08498782, -0.19070235, 0.07950423, -0.1820443, 0.13605426, -0.2299466, -0.17176871, -0.15740128, -0.34069434, -0.28762963, -0.18979657, -0.052410778, 0.012688661, -0.15758811, -0.28292748, -0.49110726, -0.15401076, -0.11945668, 0.03716599, 0.13720705, 0.11524629, 0.14077415, 0.017143587, 0.0075842417, -0.15646495, 0.11043961, 0.033641, -0.7386558, -0.13546212, 0.1383015, -0.12237103, 0.07188397, -0.050295174, -0.1346195, 0.033957664, 0.0555247, 0.07365555, 0.087450214, -0.007354964, 0.020277929, 0.15638632, -0.022529809, -0.22932142, -0.15743202, -0.29236493, 0.032400515, -0.18082011, -0.08724835, -0.10744897, -0.15459038, -0.2651213, -0.3836734, -0.09002044, -0.17828196, 0.07668663, 0.29085627, 0.068767205, 0.0903989, 0.30596936, -0.33076003, 0.091437995, 0.25247294, 0.5848539, 0.1595855, 0.23389068, 0.15332739, 0.35159576, 0.32414308, 0.21604906, 0.1352484, 0.041869566, 0.08441383, 0.3029481, 0.00830921, 0.096179225, 0.065821655, 0.20102024, 0.303154, -0.14942892, 0.08061071, -0.22562824, 0.20488155, 0.013545159, -0.14431553, 0.13749985, -0.10178962, 0.01879836, 0.060186114, -0.04394892, 0.031940408, 0.29361537, -0.16523664, 0.26854196, 0.04361766, -0.47701603, 0.048335955, 0.31858507, -0.012182808, -1.3889446, -0.76448464, 0.41353828, -0.21726182, 0.20894365, 0.09581643, 0.2992907, 0.39776066, 0.0706622, -1.5420909, 0.23205036, -0.712134, 0.1791793, -0.14689301, 0.107544705, 0.07446569, -2.354113, 0.03515746, -0.05385198, 0.086769894, 0.16668752, -0.09731069, 0.21287079, -0.19827956, 0.067769736, 0.1740752, 0.08373272, 0.077772826, 0.52695906, 0.039544106, -0.3585146, 0.36835083, -0.14688902, 0.3151376, 0.43095043, -0.28747928, -2.9307353, -1.5866172, -1.1438776, 0.06903049, 0.20490678, 0.39886308, 0.3231063, -0.5155688, -0.0069566453, 0.0082912445, -0.25042248, -4.1194487, 0.13549607, -3.67898, 0.011529641, -0.7149429, -4.7997375, -0.7355832, 0.20928736, 0.012554409, 0.31455898, -0.052691974, 0.25550827, -0.17447154, 0.1664537, 0.274442, 0.17345265, 0.054059345, -0.4559851, 0.35335106, 1.1154379, -0.32337728, 0.17466341, -1.2997451, 0.9137546, -5.493286, -4.1230545, -0.8174105, 0.29077896, -0.033696733, -1.2181252, -0.42767534, 0.45401984, -3.895897, -0.2211382, -3.056049, 0.55193335, -2.8724108, 0.33290264, -5.233698, 0.45880103, -1.3072511, -3.568384, -0.22292797, 0.39809093, 0.35450578, 0.52580625, 0.056124136, 0.3731675, 0.017221194, 0.450575, 0.43635076, 0.2851527, 0.13493262, 0.91955006, -0.72843623, 1.1057225, -0.1008767, -1.4950541, -2.019922, -7.0685554, 0.94020826, -2.995148, -0.29211232, -2.227928, -0.15893199, -1.4583107, -2.7138832, 0.55144435, -2.0098903, 0.6408223, -0.70640665, -1.4674443, -3.159227, -3.1109185, -2.2321563, -1.1676106, 0.9729687, -2.2636275, -0.17423011, 0.63509226, 0.50587696, 0.67180353, 0.25758857, 0.46172944, 0.12942314, 0.60617924, 0.53419894, 0.3630158, 0.2543164, -2.39166, -3.022515, -1.7201351, -2.5410872, -2.3345032, -2.1665044, -2.4954453, -2.5119817, -1.7067497, -2.3367076, -1.0984116, -1.7508419, -1.8295617, -2.6988528, -2.201402, -1.5994759, -2.9166062, -2.942879, -2.3750672, -2.6243458, -2.242576, -1.157196, -2.9433944, -2.554965, -1.7264923, -2.9896562, 0.064409, -0.7922422, 0.22965813, 0.31446585, 0.3737904, 0.35845464, -0.0054475195, 0.5464322, 0.17084399, 0.23265307, -3.6961768, -2.5571315, -0.67351127, -0.116820075, 0.36601615, 0.1424249, 1.027438, -0.5029616, 0.697674, -0.24169604, -0.9354439, -1.9207902, -0.350701, 0.34104604, -1.4695195, 0.10179436, -0.12157643, -3.2636595, -1.4195662, -0.21846575, 0.1625574, -0.62936103, 0.6895217, -2.4661078, -3.5027184, 0.39413518, 0.006679709, -0.51027536, -0.019508794, 0.026109243, 0.17134674, 0.15085699, -0.030803766, 0.046863623, -0.0687758, 0.23324628, 0.38910958, 0.15103906, -4.0881023, -0.11456272, -0.06776469, -0.120084204, -0.20483245, 0.29674974, 0.52556664, 0.028681729, 0.1625486, 0.27531415, 0.16606769, -0.024653304, -0.34789294, 0.015127998, -0.048293658, 0.33509675, 0.40213403, -0.47134033, -0.10667144, -5.1400094, -0.21531558, -1.0213219, 0.31271565, -0.4825623, -0.12352754, -0.57788074, -0.16336179, -0.0984389, 0.030029746, -0.08663331, -0.06072468, -0.23167947, -0.090506345, 0.071994126, 0.2829995, -0.16384579, -0.039924584, 0.07316682, -0.019236248, -0.010553719, 0.30468798, 0.065627314, -0.25490257, 0.013521536, 0.08707413, -0.021954842, 0.10273412, -0.04261021, -0.009867425, -0.08265501, -0.034165412, -0.0044256183, 0.19096151, 0.21137242, 0.28951675, -0.5821978, 0.13199718, 0.10506939, 0.16856582, -0.042857755, -0.22388096, -0.15156317, -0.10087519, -0.117336996, -0.016255831, -0.043628786, -0.050086804, -0.3198942, -0.09139756, -0.027350664, 0.053503178, 0.10358977, 0.005651719, 0.15596567, 0.0930423, 0.07923402, 0.18593153, -0.16505405, 0.26186374, 0.052968603, -0.08041283, 0.32495022, 0.015894331, 0.12847082, 0.13301492, -0.018175613, -0.113879666, -0.120639846, 0.07653726, 0.12541766, -0.05799291, 0.06858966, -0.02978845, -0.07578351, -0.010771516, -0.01988764, -0.18282889, 0.07525586, -0.069702774, -0.15919189, -0.099213675, -0.10320873, -0.03071575, -0.34581935, -0.12659873, -0.14046595, -0.1972565, 0.22022238, 0.16140996, -0.020153131, 0.15425615, 0.28168374, 0.1358009, 0.112457186, 0.17295912, 0.19446146, -0.161365, 0.272015, -1.5688916, 0.0761038, 0.13885675, -0.005518604, 0.06177827, 0.12763792, 0.15406097, -0.16332842, -0.15086447, 0.26648962, 0.16031906, -0.27604154, 0.26264626, 0.20894744, -0.2866629, 0.106451556, -0.10649839, -0.20725657, -0.063566886, -0.2257127, -0.035941143, -0.25943935, -0.25440714, -0.11554992, -0.4376863, 0.08213355, 0.015904954, -0.12928587, 0.12282211, -1.5142097, -0.082564905, -0.019332038, 0.5223855, 0.38731438, 0.10136346, 0.3495012, -0.16603594, 0.10747765, -0.080290906, 0.06833018, 0.39930487, 0.19986407, 0.080126606, -0.34014317, 0.11287221, 0.035368707, -0.059155855, 0.19786187, -0.13617948, 0.13941072, -0.15748402, -0.18654823, -0.04586205, -0.26237205, -0.04516046, -0.24878334, -0.059371755, -0.037161727, -0.22095688, -0.033281617, 0.22610229, 0.26882875, -0.27986276, 0.18816793, 0.3256458, -4.99147, 0.25144398, 0.088458925, -0.3655176, 0.112148985, 0.27931717, 0.4016862, 0.14125577, 0.17714591, -0.018403329, -0.8241112, 0.043419443, 0.28865606, -0.2682239, -0.31390062, -0.27967, -0.110289596, 0.16149507, 0.19513592, -2.2991226, 0.11514292, 0.14709018, 0.045597784, 0.21041214, 0.010704199, 0.047261618, -0.1711894, 0.14921288, 0.16815042, 0.020792779, 0.0462737, 0.1538119, -0.04550038, 0.41550788, 0.008336582, -0.49029216, -3.915773, -0.088805005, -0.09902275, -0.8061735, -0.16482785, 0.15622543, -0.20335239, 0.34581435, -1.4672987, -0.69908416, -4.790146, 0.11626874, -0.1954547, -0.20383747, -1.9963764, -0.32763708, -3.5357552, 0.2673761, -0.06461448, -2.7455432, 0.26148036, 0.30703294, 0.25512996, 0.46484655, 0.033838727, 0.1988768, -0.24375741, 0.3560736, 0.24601626, 0.047492303, -0.046223182, -7.329403, -0.17558122, 0.5893581, -0.58242416, -1.9489858, -3.8201687, -1.1538259, -7.4019303, 0.28884885, -4.5651712, 0.093233995, -0.17892049, -0.1942797, 0.27821204, -2.3657012, -3.341203, -0.023880119, -1.4016968, -0.7605351, -2.5512514, -5.2114205, -5.196257, 0.01531381, -0.80029356, -4.272041, 0.7374095, 0.5199297, 0.45005894, 0.6993558, 0.22217873, 0.38843557, -0.052231472, 0.61436576, 0.4399993, 0.3560467, 0.22035691, -3.6285305, -4.7819386, -1.6323919, -3.1463232, -3.0468886, -2.100064, -3.5161362, -2.2904017, -0.36116198, -5.067477, -0.46273434, -4.3733196, 0.16123001, -0.4917163, -1.8173432, -1.5748614, -2.9464993, -1.2803985, -0.062502004, -2.977732, -2.0998986, -1.4893817, -4.037108, -1.381059, -2.372619, 0.24293572, 0.69015324, 0.35736004, 0.7759296, 0.15147793, 0.6428131, 0.059497062, 0.65320766, 0.1396897, 0.39514908, 0.38989693, -1.6326523, -3.1077082, -1.7664318, -1.870003, -1.9106522, -1.8228669, -0.94126165, -1.9360403, -2.3839114, -2.017817, -2.5891027, -1.9151137, -2.43803, -1.6767292, -1.6097126, -1.7645633, -2.4344559, -3.3707488, -2.007391, -2.5007148, -1.8911949, -1.3670758, -0.5225269, -1.8743819, -1.2158711, -2.6117158, 0.19094221, 0.018051974, 0.20859781, 0.3131573, 0.05758665, 0.29615507, -0.037370965, -0.23293872, 0.26222548, 0.06300806, -4.1699214, -2.3286324, -1.1693707, 0.88689935, 0.0046383576, 0.72292966, -2.542344, -0.09727454, 0.7187649, -2.9043748, -1.0560938, -1.2188145, -0.77439153, 0.3454398, -1.2800583, 0.8623913, 0.39815682, -3.8542762, -0.84928995, -2.5732224, -0.6605823, -1.2292353, 0.31162003, -2.3538175, -1.9169334, -2.172771, 0.20049468, 0.031034635, 0.23543102, 0.20237839, 0.07423369, 0.23817852, 0.16091716, -0.23403452, 0.222981, 0.08578254, -0.10482481, -0.04516969, -1.1489078, 0.5818501, -0.36776024, 0.12526624, -3.2275305, 0.6019462, -0.115574285, -1.4468513, -0.14771299, -0.8689879, -0.16404437, -0.24958983, -3.4123828, 0.034291644, 0.051379547, 0.5815781, -2.0627134, 1.0160732, -0.2061187, -0.6445588, 0.09097073, 0.7347365, -3.4787445, -3.1972454, 0.17943476, 0.09698444, 0.18004568, 0.09746904, 0.058847677, 0.24324074, 0.24372931, -0.22502849, 0.14909142, -0.020617293, 0.55270857, -0.063862056, -1.8765337, -0.1877695, 0.38769147, 0.6607132, 0.4009405, 0.16797572, -0.28858712, 0.0063242665, -0.27232996, -0.6932285, 0.980704, 0.2889131, -1.044776, -0.06046164, 0.08853655, -0.44009516, -1.2974397, -4.258265, 0.49777713, -3.1620972, -0.37400815, 0.49570948, 0.41381815, -2.2962, 0.047930475, 0.08648311, 0.07470241, 0.0026489862, -0.089602694, 0.030212441, 0.18473536, -0.30685124, 0.0021374715, -0.23057088, 0.16450658, 0.20557106, 0.15133035, 0.11091564, 0.31404078, -3.7370298, -0.08768127, 0.2555989, -0.637517, 0.16971573, 0.53608024, -0.08145753, 0.04442182, -1.4031333, 0.28951737, 0.47037685, 0.24698333, -0.05609086, -0.25107497, -0.38234124, 0.3400119, -5.496873, -0.34953067, -0.046910573, 0.19073553, 0.20492944, 0.0050668493, 0.2287513, 0.097813904, -0.025113102, -0.039543144, -0.044496775, 0.23922123, -0.14930806, -0.107680604, -0.14325492, -2.4213943, -0.07766017, 0.21085022, 0.25785643, 0.29509795, 0.16039787, 0.27843428, -0.32085565, 0.4818904, 0.2498819, -1.213039, 0.24557242, -1.0016348, -0.29146296, -0.527046, 0.5159973, 0.19328687, 0.09346917, -0.00849845, 0.79473025, 0.4225725, -0.27692097, -0.8514158, 0.68763125, 0.30859223, 0.1577373, -0.09100569, 0.1343034, 0.02678443, -0.042518593, -0.012506029, -0.09536412, 0.1938275, -0.025607271, -0.2392502, 0.06816303, 0.06958885, 0.38294303, -0.042233642, -0.12060128, -0.01944765, -2.984974, 0.048915505, 0.30630374, 0.117552266, 0.18529798, -0.30850124, 0.2825139, -0.92435116, 0.09467182, 0.42485875, -0.03955635, 0.36872134, 0.2073111, 0.38242924, -2.107719, -0.11471482, 0.6640762, 0.36979833, -0.7269006, -0.09511033, -0.19310723, 0.0920626, 0.0677586, 0.15483557, 0.12055189, 0.047917865, 0.05330077, 0.2879328, -0.034953542, -0.020872045, 0.06413017, -0.29623488, 0.11257247, 0.08328631, -0.537642, -0.607877, -1.96663, -0.17485067, 0.40725026, -1.729344, 0.1326651, 0.7048581, -0.587338, 0.15525478, -0.13782346, -0.45101961, -0.51505864, 0.24163835, 0.31253913, -1.5781441, -2.7096133, 0.49021766, 0.5048506, 0.05458686, -0.6873443, -2.7581196, -0.056074843, 0.19117059, 0.044700157, 0.2881207, 0.11594495, 0.0374462, -0.009578432, 0.3494588, 0.08536709, 0.029089564, -0.10506919, 0.68848556, 0.22323033, -0.6112111, -0.6655071, -0.32312325, -1.6348046, 0.18957087, -2.5921733, -1.6094879, -0.6338498, 0.13071756, 0.09143312, 0.017553192, -2.7716143, -3.1739287, -2.7772088, 0.22894391, -0.053405166, 0.38729873, -1.2001723, -0.97811395, -3.5615237, -0.83260995, 0.62127167, -1.9820393, -0.8661811, 0.3508364, 0.35200027, 0.55133057, 0.26003435, 0.16463898, 0.07926245, 0.5543959, 0.29136848, 0.31698546, 0.17740412, -0.5252377, -0.112095445, -5.0151725, -2.8810592, -2.876105, -2.7651196, -3.8881464, 1.2144204, -4.259902, -2.5770257, 0.34919065, -4.724099, 0.2336115, -2.630869, -1.8031883, -2.736438, -1.4216826, -0.18811187, -0.77354234, -2.8095174, -0.804125, -2.570975, -0.742779, -4.299479, -2.9236617, -1.7591636, 0.5034708, 0.35915086, 0.6178945, 0.2689595, 0.3258611, 0.17597267, 0.55245155, 0.29821432, 0.32769394, 0.45081177, -0.29724005, -2.8549683, -2.3905945, -2.1132076, -1.9999703, -1.941221, -1.3330954, -2.9227319, -2.1984003, -1.9613847, -0.09365117, -1.7224079, -2.9384696, -1.9769707, -1.4946959, -1.3696904, -2.3165781, -1.4334153, -3.266896, -2.7175775, -2.4190962, -1.1883557, 0.26554537, -4.3720016, -2.0882893, -3.6027198, 0.461828, 0.04482989, 0.7388254, 0.09648387, 0.12259647, 0.21074013, 0.37144342, 0.11570033, 0.5651964, 0.48362032, -1.8825016, -1.7410467, -1.3053285, -1.7361888, -1.496916, -1.72787, -0.84919876, -2.2613971, -2.1037273, -1.9001056, -0.94815314, -1.3437079, -1.5039133, -2.1258295, -1.892483, -1.538239, -1.2487484, 0.6479106, -1.6219493, -2.263928, -1.3736761, -0.87363154, -2.5631113, -1.5388484, -1.1629646, -1.7348325, 0.25879884, 0.13909367, 0.22909598, 0.4091918, -0.099071056, 0.13992546, -0.645853, 0.23222953, 0.14888221, 0.06604167, -1.9981736, -2.9324508, -2.227872, -3.4808018, -2.1776283, -0.12322024, -1.2687156, -2.9220498, -2.668975, -1.7244511, -1.9526736, -2.5644934, -2.5093656, -3.695683, -2.4247496, -3.3946512, -1.1883193, -2.7018998, -1.2476568, -2.3418443, -2.9460127, -1.7537479, 1.10634, -2.9249196, -1.7904844, -1.893901, 0.30957186, 0.1829839, 0.27004254, 0.36090457, 0.12055166, 0.3014068, -0.042080015, 0.08284292, 0.24097049, 0.21102943, -2.930471, -1.2169243, -1.6557083, -3.1392787, -2.6787562, -0.47824508, -1.4467043, -3.7792335, -3.1406946, -1.6327686, -2.311536, -2.5735087, -2.7671254, 0.41741687, -2.6110692, -3.3033595, 0.2928972, -3.5967774, -1.5169015, -1.9646686, -3.2364612, -2.016205, -3.7145996, -0.1745504, -2.533523, -2.1364844, 0.3444929, 0.24085774, 0.26969087, 0.3630517, 0.19109707, 0.31818655, 0.24108194, 0.027270852, 0.34536573, 0.17718369, -3.727159, -0.50225705, -2.1508334, -2.115723, -3.4761553, -1.5059836, -1.6675562, 0.20011239, -3.2709563, -2.1600852, -2.634183, -2.3111117, -2.9397438, -3.7686472, -2.406399, -3.4205384, -0.080585234, -0.3385629, -1.2827879, -2.9399478, -1.3583561, -2.3874054, -2.4260361, -1.1215919, -3.1498046, -2.3590815, 0.34721613, 0.2067575, 0.20949796, 0.24897891, 0.18031567, 0.2171363, 0.23427287, -0.020056318, 0.3263665, 0.021274008, -0.8381756, -0.028121194, -2.786948, -3.2098231, -2.9208999, -3.1385412, -2.907771, -2.858555, -2.7169874, -2.5055296, -2.6024742, -2.035735, -2.6731815, -3.1374848, -2.2236269, -2.375384, -1.8855478, -0.012146, -1.9588923, -2.8536327, -0.8402441, -2.4532895, -3.015988, -0.541645, -3.2923102, -1.8894111, 0.34410208, 0.3153804, 0.1760659, 0.22392297, 0.190899, 0.19878866, 0.25792333, 0.06476999, 0.27886844, 0.023437757, -4.1563687, -0.4705452, -3.1890414, -3.1644747, -3.0941048, -2.7462893, -3.7416081, -4.2802987, -4.2714624, -0.8627831, -2.6621292, -2.9842458, -2.7383194, -3.1479735, -2.6996853, -2.515268, -0.3116335, -1.2095352, -2.543792, -2.3415742, 0.07464812, -2.7967827, -2.0440228, -0.5548925, -0.7284357, -1.6788281, 0.32515848, 0.36620453, 0.17698154, 0.21093826, 0.2705983, 0.221186, 0.24926314, 0.05650023, 0.30215588, 0.08859638, -4.029404, 0.01294709, -0.043393023, -3.5455718, -3.5053082, -2.8001378, -2.9672015, 0.09313673, -2.8276265, -1.1444452, -2.6127212, -2.9105072, -2.9378603, -3.4143753, -2.9106393, -3.6900034, -0.89338964, -0.24492286, -0.10875006, -1.7798855, -1.0342826, -2.751883, -1.8333212, -4.467944, -2.9926682, -2.0565124, 0.3272723, 0.2981019, 0.2973796, 0.2608644, 0.32834178, 0.19108656, 0.301183, -0.0025944416, 0.3702739, 0.09652551, -1.5061336, -0.40678018, -3.591216, -0.5445957, -4.2030735, -3.5125344, -3.3722658, -4.0110216, -2.2302792, -2.8212967, -3.0168123, -2.487219, -3.7731295, -3.067209, -3.3189454, -2.9303925, 0.13075367, -0.3514651, -0.70356196, -1.4051871, -0.37333268, -2.0257208, 0.260941, -4.362896, -2.7812579, -2.26173, 0.36013237, 0.34189594, 0.3977191, 0.3063699, 0.4003764, 0.23805705, 0.41917527, 0.03843025, 0.39524242, 0.11096311, -0.90705246, 0.0008517857, -2.6721942, -3.515728, -3.0065053, -3.2487333, -2.8579264, -2.6806343, -2.5209312, -2.3076425, -3.4009254, -1.9373641, -3.2791998, -2.0734842, -2.414559, -2.6333764, 0.3222754, -0.5415318, 0.25084165, -2.4749515, 0.7333193, -1.7821243, -3.70172, 0.48309058, -1.7029628, -1.9427294, 0.42023516, 0.40440306, 0.6908397, 0.38654694, 0.48999292, 0.3345849, 0.40143526, 0.14971338, 0.5048453, 0.31047973, -1.9280801, -1.0441962, -2.5426242, -2.1887033, -2.2453406, -2.773644, -2.496622, -3.0451932, -2.2663798, -1.8716382, -2.8419945, -1.9739205, -2.8727016, -2.4313066, -1.832261, -1.5236931, -1.137461, -0.5797782, -2.9051464, -2.3052385, -3.8564293, -1.6865572, -3.0893862, -3.0548356, -1.3541187, -2.3301973, 0.70325214, 0.52838874, 0.89967734, 0.42863417, 0.3979264, 0.47192025, 0.38819927, 0.041594293, 0.619731, 0.3629104, -1.6755818, -2.3681324, -1.6661867, -1.8904675, -1.8757508, -1.5565283, -1.9102516, -2.2043917, -0.96556115, -1.9801838, -2.813507, -1.7647634, -2.3349342, -1.664347, -1.7607287, -1.6228656, 0.40805107, -2.5121474, -1.9169049, -2.5417604, -3.302305, -1.5860007, -3.4007282, -1.7637483, -1.5501285, -2.1223292, 0.21437988, 0.45950106, 0.76978034, -0.34860662, 0.0251452, 0.18667552, -0.2770884, -0.15470187, 0.11143556, 0.3866735, -1.0188193, -1.1789163, -0.49049482, -0.9840889, -0.1149133, -0.6712206, -0.95504606, -1.5820512, -1.1875316, -1.0229324, -1.7651105, -0.7363906, -0.90633297, -0.9202144, -1.1783687, -1.0109149, -2.012318, -2.3011618, -1.1685205, -1.7865664, -0.90025014, -0.7034472, -1.784397, -1.3229076, -0.99122125, -1.1051034};
//const float dense_weights[DENSE_INPUT_SIZE*DENSE_OUTPUT_SIZE] = {0.5, 2.0, 3.0, 1.0, -2.0, -3.0, 4.0, 2.0, 3.0, 2.0, 2.0, 3.0, 4.0, 5.0, 10.0};

DeepNeuralNetwork::DeepNeuralNetwork() {
}

/**
 *
 * @param image
 * @return an integer between 0 and 35 containing the prediction
 */


int DeepNeuralNetwork::inference(const int image[][INPUT_IMAGE_SIZE]) {
    float input[INPUT_IMAGE_SIZE][INPUT_IMAGE_SIZE];

    for (int i=0; i<INPUT_IMAGE_SIZE; i++)
        for (int j=0; j<INPUT_IMAGE_SIZE; j++)
            input[i][j] = image[i][j];

    conv2d(input, conv2D_filter, conv2d_output);
    maxpool2d(conv2d_output, maxpool_output);
    flatten(maxpool_output, flatten_output);
    dense(flatten_output, dense_output);

    float max = std::numeric_limits<float>::min();
    int maxIndex = -1;
    for (int i = 0; i < DENSE_OUTPUT_SIZE; i++) {
        if (dense_output[i] > max) {
            max = dense_output[i];
            maxIndex = i;
        }
    }

    for (int i = 0; i < DENSE_OUTPUT_SIZE; i++) {
      //  std::cout << "Neuron " << i << ": " << dense_output[i] << std::endl;
    }
    char prediction;
    if (maxIndex < 10)
        prediction = maxIndex + '0';
    else
        prediction = maxIndex + 'A';
    std::cout << "Inference neuron: " << maxIndex << std::endl;
    std::cout << "Inference letter: " << prediction << std::endl;
    std::cout << std::endl;
    return maxIndex;
}

void DeepNeuralNetwork::conv2d(const float input[][CONV2D_INPUT_SIZE], const float kernel[][CONV2D_SIZE], float output[][CONV2D_OUTPUT_SIZE]) {
    for (int i = 0; i < CONV2D_OUTPUT_SIZE; i++) {
        for (int j = 0; j < CONV2D_OUTPUT_SIZE; j++) {
            float res = 0;
            for (int k = 0; k < CONV2D_SIZE; k++) {
                for (int m = 0; m < CONV2D_SIZE; m++) {
                    int row = i + k;
                    int col = j + m;
                    float mul = input[row][col] * kernel[k][m];
                    res = res + mul;
                }
            }
            output[i][j] = leaky_relu(res);
        }
    }
}

void DeepNeuralNetwork::maxpool2d(const float input[][MAX_POOL_INPUT_SIZE], float output[][MAX_POOL_OUTPUT_SIZE]) {
    for (int i = 0; i < MAX_POOL_OUTPUT_SIZE; i++)
        for (int j = 0; j < MAX_POOL_OUTPUT_SIZE; j++)
            output[i][j] = 0;

    for (int y = 0; y < MAX_POOL_OUTPUT_SIZE; ++y) {
        for (int x = 0; x < MAX_POOL_OUTPUT_SIZE; ++x) {
            for (int i = 0; i < MAX_POOL_SIZE; ++i) {
                for (int j = 0; j < MAX_POOL_SIZE; ++j) {
                    float value = input[y * MAX_POOL_SIZE + i][x * MAX_POOL_SIZE + j];
                    output[y][x] = std::max(output[y][x], value);
                }
            }
        }
    }
}

void DeepNeuralNetwork::flatten(const float input[][FLATTEN_INPUT_SIZE], float *output) {
    for (int i = 0; i < FLATTEN_INPUT_SIZE; i++)
        for (int j = 0; j < FLATTEN_INPUT_SIZE; j++)
            output[i * FLATTEN_INPUT_SIZE + j] = input[i][j];
}

void DeepNeuralNetwork::dense(const float *input, float *output) {
    for (int i = 0; i < DENSE_OUTPUT_SIZE; i++)
        output[i] = 0;

    for (int i = 0; i < DENSE_INPUT_SIZE; i++)
        for (int j = 0; j < DENSE_OUTPUT_SIZE; j++)
            output[j] += dense_weights[i * DENSE_OUTPUT_SIZE + j] * input[i];
}

float DeepNeuralNetwork::leaky_relu(float x) {
    if (x >= 0)
        return x;
    return 0.01 * x;
}
